{
  "layers": [
    {
      "neuronsMatrix": [
        {
          "value": 1.3672519788205493
        },
        {
          "value": 1.7135811368981075
        },
        {
          "value": 0
        },
        {
          "value": 0
        },
        {
          "value": 0
        },
        {
          "value": 0
        },
        {
          "value": 1.053569646648955
        },
        {
          "value": 0.6055245377482206
        }
      ],
      "weightsMatrix": [
        [
          -0.5506775307307565,
          0.0857706301976553,
          -0.5957835963463447,
          0.5707088802123703,
          -0.4612215150284118,
          0.5217099431358094,
          0.5928225769764537
        ],
        [
          -0.1712872058060615,
          0.4857201051141278,
          0.8954919749193482,
          -0.7200510844098504,
          -0.2916802057280967,
          0.3210987601436792,
          0.4546211450452491
        ],
        [
          -0.7086162060555115,
          0.27320295341282286,
          0.48888934425677477,
          -0.5815413881120719,
          -0.3878080122298213,
          0.39419288348505743,
          0.23814305879798692
        ],
        [
          0.6185383527909591,
          -0.3221712041848326,
          -0.09334732789228983,
          -0.961468661085279,
          0.7521664059219795,
          0.04906520520972535,
          -0.04806563272008235
        ],
        [
          -0.4845362320559117,
          -0.015052791581208869,
          0.5366581610416037,
          0.44962696867172314,
          0.015370715744421837,
          -0.9734764811291003,
          0.20304814334446464
        ],
        [
          -0.5383860147750754,
          -0.17033169201164267,
          0.511930488744897,
          0.41703918467734713,
          -0.46492429021560344,
          0.722788376358872,
          0.0052170980040990855
        ],
        [
          0.5222794105812252,
          0.38968418871064436,
          -0.2605342440154006,
          0.07367429711173301,
          -0.6953303951596199,
          0.22391109468311088,
          -0.9918487711212838
        ],
        [
          0.013417876959636033,
          0.9105929302814535,
          0.40715459451534475,
          0.42562817680733467,
          0.4485661341378173,
          -0.208059450327029,
          0.5233669567716901
        ]
      ]
    },
    {
      "neuronsMatrix": [
        {
          "value": -0.45266489193578124,
          "bias": 0,
          "errorDelta": 0,
          "activationFn": 0
        },
        {
          "value": 0.9468084038287632,
          "bias": -0.11151358122511379,
          "errorDelta": 0,
          "activationFn": 0
        },
        {
          "value": 0.5992415741700226,
          "bias": 0,
          "errorDelta": 0,
          "activationFn": 0
        },
        {
          "value": -0.1176662029159845,
          "bias": 0,
          "errorDelta": 0,
          "activationFn": 0
        },
        {
          "value": -0.9203614056706227,
          "bias": 0,
          "errorDelta": 0,
          "activationFn": 0
        },
        {
          "value": 0.8794780082909738,
          "bias": 0,
          "errorDelta": 0,
          "activationFn": 0
        },
        {
          "value": 0.6970285907061613,
          "bias": 0,
          "errorDelta": 0,
          "activationFn": 0
        }
      ],
      "weightsMatrix": [
        [
          -0.8267370000873142,
          -0.16827088720048833
        ],
        [
          0.5148462632101785,
          0.30977917855102355
        ],
        [
          0.7368118092973801,
          -0.665465038985658
        ],
        [
          0.17768565074063636,
          0.5394177910708224
        ],
        [
          0.6906306150669876,
          -0.6526302833967321
        ],
        [
          0.4488740688130899,
          -0.4836323936509357
        ],
        [
          -0.0048396610660401684,
          -0.8705841706988044
        ]
      ]
    },
    {
      "neuronsMatrix": [
        {
          "value": 0.7771319058760201,
          "bias": 0,
          "errorDelta": 0,
          "activationFn": 0
        },
        {
          "value": -0.4809997152721576,
          "bias": 0,
          "errorDelta": 0,
          "activationFn": 0
        }
      ],
      "weightsMatrix": null
    }
  ]
}
