{
  "layers": [
    {
      "neuronsMatrix": [
        {
          "value": 0
        },
        {
          "value": 0
        },
        {
          "value": 0
        },
        {
          "value": 0
        },
        {
          "value": 0
        },
        {
          "value": 0
        },
        {
          "value": 0
        },
        {
          "value": 0
        }
      ],
      "weightsMatrix": [
        [
          -0.5730732653345975,
          0.0857706301976553,
          -0.6222080900773925,
          0.6189388406113823,
          -0.4612215150284118,
          0.5217099431358094,
          0.5984634305124679
        ],
        [
          -0.06653132787471965,
          0.4857201051141278,
          0.8954919749193482,
          -0.7200510844098504,
          -0.2916802057280967,
          0.3210987601436792,
          0.4652900418902465
        ],
        [
          -0.7086162060555115,
          0.28394685417041726,
          0.48888934425677477,
          -0.6109522738747022,
          -0.3878080122298213,
          0.39419288348505743,
          0.23814305879798692
        ],
        [
          0.6149308165891131,
          -0.3221712041848326,
          -0.09334732789228983,
          -0.961468661085279,
          0.7521664059219795,
          0.09782221523145154,
          -0.04806563272008235
        ],
        [
          -0.4585343669326535,
          -0.01063454147788314,
          0.5366581610416037,
          0.44962696867172314,
          0.015370715744421837,
          -0.9734764811291003,
          0.22847879951935424
        ],
        [
          -0.5287069756901924,
          -0.17033169201164267,
          0.5334486016472516,
          0.41703918467734713,
          -0.46492429021560344,
          0.7919848532546739,
          0.0052170980040990855
        ],
        [
          0.5099061101699659,
          0.39808629380934907,
          -0.2124312251171594,
          0.03047660013736117,
          -0.6948605434498406,
          0.22391109468311088,
          -1.0248934433641859
        ],
        [
          0.04492682353987214,
          0.9276005103440395,
          0.4323465524134017,
          0.4662067625258036,
          0.4625791745331866,
          -0.208059450327029,
          0.5269845322435889
        ]
      ]
    },
    {
      "neuronsMatrix": [
        {
          "value": -0.9754153009434329,
          "bias": 0,
          "errorDelta": 0,
          "activationFn": 0
        },
        {
          "value": 0.3364223428103959,
          "bias": -0.11151358122511379,
          "errorDelta": 0,
          "activationFn": 0
        },
        {
          "value": 0.8520130369771701,
          "bias": 0,
          "errorDelta": 0,
          "activationFn": 0
        },
        {
          "value": 0.7600845597630629,
          "bias": 0.038662464185813136,
          "errorDelta": 0,
          "activationFn": 0
        },
        {
          "value": -0.9762320158433022,
          "bias": -0.03527158396822292,
          "errorDelta": 0,
          "activationFn": 0
        },
        {
          "value": 0.9950939131251035,
          "bias": 0,
          "errorDelta": 0,
          "activationFn": 0
        },
        {
          "value": 0.9295126983236813,
          "bias": -0.03754003902798684,
          "errorDelta": 0,
          "activationFn": 0
        }
      ],
      "weightsMatrix": [
        [
          -0.8267370000873142,
          -0.20440978238142735
        ],
        [
          0.5551482205707338,
          0.2679289100081578
        ],
        [
          0.7368118092973801,
          -0.665465038985658
        ],
        [
          0.20288583394886517,
          0.5394177910708224
        ],
        [
          0.6906306150669876,
          -0.6878754707960831
        ],
        [
          0.4488740688130899,
          -0.4836323936509357
        ],
        [
          -0.0048396610660401684,
          -0.8705841706988044
        ]
      ]
    },
    {
      "neuronsMatrix": [
        {
          "value": 0.9126427276181645,
          "bias": 0,
          "errorDelta": 0,
          "activationFn": 0
        },
        {
          "value": -0.45136459429941195,
          "bias": 0,
          "errorDelta": 0,
          "activationFn": 0
        }
      ],
      "weightsMatrix": null
    }
  ]
}
