{
  "layers": [
    {
      "neuronsMatrix": [
        {
          "value": 1.3345149463919403
        },
        {
          "value": 0.049222732163854095
        },
        {
          "value": 3
        },
        {
          "value": 3
        },
        {
          "value": 2.6865568167425544
        },
        {
          "value": 3
        },
        {
          "value": 1.5272667561982949
        },
        {
          "value": 1.260086752904293
        }
      ],
      "weightsMatrix": [
        [
          1.1179963315792003,
          -0.7393644430161277,
          0.5030910993046659,
          0.7878016312972327,
          0.9069338991869448,
          -0.7534679003818114,
          -0.3846287466160827,
          0.5399450482576356
        ],
        [
          -0.34871383674216155,
          -0.8565099225503299,
          -0.09627861769022728,
          -0.13427546312002114,
          -0.45847010842228064,
          -0.14022297503590614,
          0.8036060972980446,
          -1.2817294118865643
        ],
        [
          0.3631859490124592,
          -0.13054612604770632,
          -0.6601128660916425,
          0.6006719228184938,
          -1.1477563060138798,
          -0.4024788016829848,
          0.9909870022900851,
          1.030879394555638
        ],
        [
          0.4065253090853373,
          0.7168280084144634,
          -0.19634332516981542,
          0.8410085680417221,
          0.26689701895927564,
          0.9749661878497271,
          0.7001530576111844,
          -0.15145672421955902
        ],
        [
          0.9878157181466397,
          0.04523606606789212,
          -0.39524736542942857,
          -1.0310108575332646,
          -0.39896750168341555,
          -0.28690096986021174,
          -0.12698976366333437,
          -0.6078867490046047
        ],
        [
          -0.7719279057422455,
          -0.39272745501209505,
          -0.2322905287860038,
          0.6489793782883643,
          0.4107362398047494,
          0.4165141158140382,
          -0.7008099138376012,
          -0.7181472449784594
        ],
        [
          -0.5545912115754338,
          -0.2051219021816979,
          -0.33671757543701597,
          -0.7720196824871302,
          -0.010705666558670779,
          0.4832906362693441,
          -0.7079152375553112,
          -0.39141969367589846
        ],
        [
          0.44949602166317815,
          0.24076759794267089,
          -0.40937650787789837,
          -0.31038438538800484,
          0.691989895482271,
          0.5628950724883696,
          0.5035523142323012,
          0.8686454011131473
        ]
      ]
    },
    {
      "neuronsMatrix": [
        {
          "value": 0.9991410220146744,
          "bias": 0.03485589522184873,
          "errorDelta": 0,
          "activationFn": 0
        },
        {
          "value": -0.11357448666891991,
          "bias": 0.22248127631660553,
          "errorDelta": 0,
          "activationFn": 0
        },
        {
          "value": -0.9999166947768809,
          "bias": -0.3514937747152718,
          "errorDelta": 0,
          "activationFn": 0
        },
        {
          "value": 0.9890664617444482,
          "bias": -0.374849896317639,
          "errorDelta": 0,
          "activationFn": 0
        },
        {
          "value": -0.387921415789289,
          "bias": 0.029500497372883322,
          "errorDelta": 0,
          "activationFn": 0
        },
        {
          "value": 0.9896882120590268,
          "bias": 0,
          "errorDelta": 0,
          "activationFn": 0
        },
        {
          "value": 0.9365778532555412,
          "bias": 0,
          "errorDelta": 0,
          "activationFn": 0
        },
        {
          "value": -0.3611012098229081,
          "bias": -0.3830964324461621,
          "errorDelta": 0,
          "activationFn": 0
        }
      ],
      "weightsMatrix": [
        [
          -0.5576560122483337,
          1.0973974015413086,
          0.28966958146719923,
          -0.4193621302679254
        ],
        [
          -0.8897323926915657,
          0.8115917364592063,
          -0.7994817163072921,
          -0.8910668487392908
        ],
        [
          -0.7497586857435454,
          0.5732935821148962,
          -0.794291910404507,
          -0.8038763387713725
        ],
        [
          -0.23020321182760553,
          -0.6004400363618652,
          -0.9135331235948971,
          0.2749385352397581
        ],
        [
          0.34976363842201286,
          -0.35107583402698633,
          -0.09380043752341483,
          0.17143717867123887
        ],
        [
          0.25903313102538705,
          -1.0678554237247413,
          -0.09725433186953003,
          -0.2318532065265319
        ],
        [
          -0.20538119684533052,
          -0.5108960421301041,
          0.2842675778155712,
          -0.258715685361512
        ],
        [
          -0.6978867238878609,
          0.35283394222510855,
          -0.6895816601574366,
          -1.2275900146897287
        ]
      ]
    },
    {
      "neuronsMatrix": [
        {
          "value": 0.21732190150447994,
          "bias": -0.02537381101347094,
          "errorDelta": 0,
          "activationFn": 0
        },
        {
          "value": -0.9612614535062115,
          "bias": -0.27285495131060783,
          "errorDelta": 0,
          "activationFn": 0
        },
        {
          "value": 0.6325254173445058,
          "bias": 0.01932916165504442,
          "errorDelta": 0,
          "activationFn": 0
        },
        {
          "value": 0.5796373515365811,
          "bias": -0.0010363342536583234,
          "errorDelta": 0,
          "activationFn": 0
        }
      ],
      "weightsMatrix": [
        [
          0.527736542653257,
          -1.0577511287048178
        ],
        [
          -0.799170371961504,
          -0.6317696449576959
        ],
        [
          -0.2780047744550562,
          -0.5858139501494525
        ],
        [
          -0.2972877251322133,
          -0.3460363392154422
        ]
      ]
    },
    {
      "neuronsMatrix": [
        {
          "value": 0.20178591258678125,
          "bias": -0.3301426524340057,
          "errorDelta": 0,
          "activationFn": 0
        },
        {
          "value": -0.22670281619145916,
          "bias": -0.03701641106044991,
          "errorDelta": 0,
          "activationFn": 0
        }
      ],
      "weightsMatrix": null
    }
  ]
}
