{
  "layers": [
    {
      "neuronsMatrix": [
        {
          "value": 0
        },
        {
          "value": 0
        },
        {
          "value": 0
        },
        {
          "value": 0
        },
        {
          "value": 0
        },
        {
          "value": 0
        },
        {
          "value": 0
        },
        {
          "value": 0
        }
      ],
      "weightsMatrix": [
        [
          -0.5730732653345975,
          0.0857706301976553,
          -0.6222080900773925,
          0.6464055222138836,
          -0.4612215150284118,
          0.5242421177432197,
          0.5984634305124679
        ],
        [
          -0.06653132787471965,
          0.4857201051141278,
          0.8954919749193482,
          -0.7200510844098504,
          -0.2916802057280967,
          0.30209167093182576,
          0.4531988421682327
        ],
        [
          -0.7486077320692791,
          0.28394685417041726,
          0.48888934425677477,
          -0.6146637267274182,
          -0.3878080122298213,
          0.39419288348505743,
          0.18234312089329716
        ],
        [
          0.6149308165891131,
          -0.3221712041848326,
          -0.09334732789228983,
          -0.9310375842719583,
          0.7521664059219795,
          0.09782221523145154,
          -0.04806563272008235
        ],
        [
          -0.4613880909543259,
          -0.020901310871027222,
          0.5845106986742485,
          0.44962696867172314,
          0.015370715744421837,
          -0.9734764811291003,
          0.22847879951935424
        ],
        [
          -0.5287069756901924,
          -0.1470569721016361,
          0.5541443663562572,
          0.41703918467734713,
          -0.46492429021560344,
          0.7454355202452524,
          0.0052170980040990855
        ],
        [
          0.5099061101699659,
          0.39808629380934907,
          -0.2124312251171594,
          0.03047660013736117,
          -0.6948605434498406,
          0.22391109468311088,
          -1.0745155768075756
        ],
        [
          0.04492682353987214,
          0.9276005103440395,
          0.3980006341141575,
          0.4662067625258036,
          0.4625791745331866,
          -0.2394864388822522,
          0.5269845322435889
        ]
      ]
    },
    {
      "neuronsMatrix": [
        {
          "value": -0.9855491658398403,
          "bias": 0,
          "errorDelta": 0,
          "activationFn": 0
        },
        {
          "value": -0.12803238345281562,
          "bias": -0.11151358122511379,
          "errorDelta": 0,
          "activationFn": 0
        },
        {
          "value": -0.9750719348930237,
          "bias": 0,
          "errorDelta": 0,
          "activationFn": 0
        },
        {
          "value": 0.9322501197887582,
          "bias": 0.038662464185813136,
          "errorDelta": 0,
          "activationFn": 0
        },
        {
          "value": -0.8048895972776572,
          "bias": -0.03527158396822292,
          "errorDelta": 0,
          "activationFn": 0
        },
        {
          "value": 0.7873734464407943,
          "bias": 0,
          "errorDelta": 0,
          "activationFn": 0
        },
        {
          "value": -0.03566781922756362,
          "bias": -0.03754003902798684,
          "errorDelta": 0,
          "activationFn": 0
        }
      ],
      "weightsMatrix": [
        [
          -0.8267370000873142,
          -0.20440978238142735
        ],
        [
          0.5551482205707338,
          0.2679289100081578
        ],
        [
          0.7368118092973801,
          -0.665465038985658
        ],
        [
          0.20288583394886517,
          0.5312143312009242
        ],
        [
          0.6906306150669876,
          -0.6878754707960831
        ],
        [
          0.4488740688130899,
          -0.4836323936509357
        ],
        [
          -0.0048396610660401684,
          -0.8705841706988044
        ]
      ]
    },
    {
      "neuronsMatrix": [
        {
          "value": 0.012130987399397438,
          "bias": 0,
          "errorDelta": 0,
          "activationFn": 0
        },
        {
          "value": 0.9078521608892396,
          "bias": 0,
          "errorDelta": 0,
          "activationFn": 0
        }
      ],
      "weightsMatrix": null
    }
  ]
}
