{
  "layers": [
    {
      "neuronsMatrix": [
        {
          "value": 1.4895624422108673
        },
        {
          "value": 1.1960294589996219
        },
        {
          "value": 3
        },
        {
          "value": 1.3530369427569293
        },
        {
          "value": 0.571104469965062
        },
        {
          "value": 0.13670608988452582
        },
        {
          "value": 0.032301052542199504
        },
        {
          "value": 0.1371948697518743
        }
      ],
      "weightsMatrix": [
        [
          0.8594032380983201,
          -0.7714299964860595,
          0.10806977250362237,
          0.7878016312972327,
          0.9067898490148749,
          -0.3194365410837655,
          -0.6143048851160682,
          0.5399450482576356
        ],
        [
          -0.34871383674216155,
          -0.8659828865329979,
          -0.09627861769022728,
          -0.13427546312002114,
          -0.45847010842228064,
          -0.14022297503590614,
          0.8014246980516644,
          -0.9311343165256263
        ],
        [
          0.46175654732773896,
          -0.13054612604770632,
          -0.956030888540333,
          0.6006719228184938,
          -0.8510173554113214,
          -0.4024788016829848,
          0.9909870022900851,
          0.6959396411837111
        ],
        [
          0.18684045984385156,
          0.7168280084144634,
          -0.19634332516981542,
          0.8410085680417221,
          0.26689701895927564,
          0.7777053454656764,
          0.9112650284130526,
          -0.15145672421955902
        ],
        [
          0.9878157181466397,
          0.04523606606789212,
          -0.39524736542942857,
          -0.9407749635056559,
          -0.39896750168341555,
          -0.11839002777309915,
          -0.12698976366333437,
          -0.6078867490046047
        ],
        [
          -0.508345988227533,
          -0.39272745501209505,
          0.2486241926980614,
          0.6489793782883643,
          0.523062911756982,
          0.4165141158140382,
          -0.7008099138376012,
          -0.5367568850654243
        ],
        [
          -0.5313167125939147,
          -0.2051219021816979,
          -0.7269353487885434,
          -0.9484297588731867,
          -0.18614202792055962,
          0.4832906362693441,
          -0.7079152375553112,
          -0.39141969367589846
        ],
        [
          0.3511533150710471,
          0.24076759794267089,
          -0.40937650787789837,
          -0.1281107116280995,
          0.691989895482271,
          0.5628214155966087,
          0.6811973567893839,
          0.8686454011131473
        ]
      ]
    },
    {
      "neuronsMatrix": [
        {
          "value": 0.9956272140117604,
          "bias": 0.03485589522184873,
          "errorDelta": 0,
          "activationFn": 0
        },
        {
          "value": -0.9228676519068022,
          "bias": 0,
          "errorDelta": 0,
          "activationFn": 0
        },
        {
          "value": -0.9975865171340569,
          "bias": 0,
          "errorDelta": 0,
          "activationFn": 0
        },
        {
          "value": 0.9980106154527448,
          "bias": 0,
          "errorDelta": 0,
          "activationFn": 0
        },
        {
          "value": -0.8911479936483929,
          "bias": 0.029500497372883322,
          "errorDelta": 0,
          "activationFn": 0
        },
        {
          "value": -0.6147676673316939,
          "bias": 0,
          "errorDelta": 0,
          "activationFn": 0
        },
        {
          "value": 0.999504755535527,
          "bias": 0,
          "errorDelta": 0,
          "activationFn": 0
        },
        {
          "value": 0.8509250533373651,
          "bias": 0,
          "errorDelta": 0,
          "activationFn": 0
        }
      ],
      "weightsMatrix": [
        [
          -0.5576560122483337,
          0.7473476229968972,
          0.28966958146719923,
          -0.4193621302679254
        ],
        [
          -0.8404030888022707,
          0.5266649608021596,
          -0.9315235976992589,
          -0.8910668487392908
        ],
        [
          -0.7497586857435454,
          0.22590219567941713,
          -0.5337635208980429,
          -0.8038763387713725
        ],
        [
          0.08716897511692684,
          -0.6004400363618652,
          -0.9135331235948971,
          0.2854901786731685
        ],
        [
          0.34976363842201286,
          -0.35107583402698633,
          0.15592369988546942,
          0.03991469552631388
        ],
        [
          0.25903313102538705,
          -0.7823145489338191,
          -0.09725433186953003,
          0.31427331019942306
        ],
        [
          -0.6287952952418268,
          -0.5108960421301041,
          0.2842675778155712,
          -0.258715685361512
        ],
        [
          -0.698574327350431,
          0.35283394222510855,
          -0.6895816601574366,
          -0.9946416512712211
        ]
      ]
    },
    {
      "neuronsMatrix": [
        {
          "value": -0.5809665150192309,
          "bias": -0.02537381101347094,
          "errorDelta": 0,
          "activationFn": 0
        },
        {
          "value": -0.032033362984296786,
          "bias": -0.04887382072716826,
          "errorDelta": 0,
          "activationFn": 0
        },
        {
          "value": 0.3853664139006576,
          "bias": 0.01932916165504442,
          "errorDelta": 0,
          "activationFn": 0
        },
        {
          "value": 0.15562747581235709,
          "bias": -0.0010363342536583234,
          "errorDelta": 0,
          "activationFn": 0
        }
      ],
      "weightsMatrix": [
        [
          0.44060536405626677,
          -0.738851342748847
        ],
        [
          -0.799170371961504,
          -0.5958309035669833
        ],
        [
          -0.2780047744550562,
          -0.2239963891710337
        ],
        [
          -0.2972877251322133,
          -0.3460363392154422
        ]
      ]
    },
    {
      "neuronsMatrix": [
        {
          "value": -0.36598280598117916,
          "bias": 0,
          "errorDelta": 0,
          "activationFn": 0
        },
        {
          "value": 0.26468947236333384,
          "bias": -0.03701641106044991,
          "errorDelta": 0,
          "activationFn": 0
        }
      ],
      "weightsMatrix": null
    }
  ]
}
