{
  "layers": [
    {
      "neuronsMatrix": [
        {
          "value": 0
        },
        {
          "value": 0
        },
        {
          "value": 0
        },
        {
          "value": 0
        },
        {
          "value": 0
        },
        {
          "value": 0
        },
        {
          "value": 0
        },
        {
          "value": 0
        }
      ],
      "weightsMatrix": [
        [
          -0.5730732653345975,
          0.0857706301976553,
          -0.6222080900773925,
          0.6189388406113823,
          -0.4612215150284118,
          0.5217099431358094,
          0.5984634305124679
        ],
        [
          -0.06653132787471965,
          0.4857201051141278,
          0.8954919749193482,
          -0.7200510844098504,
          -0.2916802057280967,
          0.3210987601436792,
          0.4732031717785005
        ],
        [
          -0.7086162060555115,
          0.23574292396666577,
          0.48888934425677477,
          -0.6109522738747022,
          -0.39295577872617937,
          0.39419288348505743,
          0.23814305879798692
        ],
        [
          0.6149308165891131,
          -0.3221712041848326,
          -0.09334732789228983,
          -0.9677295324311546,
          0.7521664059219795,
          0.09782221523145154,
          -0.04806563272008235
        ],
        [
          -0.4585343669326535,
          -0.01063454147788314,
          0.5366581610416037,
          0.44962696867172314,
          0.015370715744421837,
          -0.958202187494449,
          0.22847879951935424
        ],
        [
          -0.5287069756901924,
          -0.17033169201164267,
          0.5334486016472516,
          0.41703918467734713,
          -0.46492429021560344,
          0.7919848532546739,
          0.0064248459770457345
        ],
        [
          0.5099061101699659,
          0.39808629380934907,
          -0.2124312251171594,
          0.03047660013736117,
          -0.6948605434498406,
          0.2249409732513141,
          -1.0248934433641859
        ],
        [
          0.04492682353987214,
          0.9101075370443935,
          0.4323465524134017,
          0.4662067625258036,
          0.48373817286210163,
          -0.227032212087823,
          0.5269845322435889
        ]
      ]
    },
    {
      "neuronsMatrix": [
        {
          "value": -0.9845468012072202,
          "bias": 0,
          "errorDelta": 0,
          "activationFn": 0
        },
        {
          "value": 0.9786917577340815,
          "bias": -0.09618591131640483,
          "errorDelta": 0,
          "activationFn": 0
        },
        {
          "value": 0.9978975217304294,
          "bias": 0,
          "errorDelta": 0,
          "activationFn": 0
        },
        {
          "value": 0.9855038808073319,
          "bias": 0.038662464185813136,
          "errorDelta": 0,
          "activationFn": 0
        },
        {
          "value": -0.9881184579914468,
          "bias": -0.03527158396822292,
          "errorDelta": 0,
          "activationFn": 0
        },
        {
          "value": 0.241862227564216,
          "bias": 0,
          "errorDelta": 0,
          "activationFn": 0
        },
        {
          "value": 0.8691968286827483,
          "bias": -0.03754003902798684,
          "errorDelta": 0,
          "activationFn": 0
        }
      ],
      "weightsMatrix": [
        [
          -0.8267370000873142,
          -0.20440978238142735
        ],
        [
          0.5551482205707338,
          0.2679289100081578
        ],
        [
          0.7368118092973801,
          -0.7022100301179398
        ],
        [
          0.20288583394886517,
          0.5394177910708224
        ],
        [
          0.6906306150669876,
          -0.6878754707960831
        ],
        [
          0.4488740688130899,
          -0.4836323936509357
        ],
        [
          -0.0048396610660401684,
          -0.8705841706988044
        ]
      ]
    },
    {
      "neuronsMatrix": [
        {
          "value": 0.9371878331300333,
          "bias": 0,
          "errorDelta": 0,
          "activationFn": 0
        },
        {
          "value": 0.1354230546125635,
          "bias": 0.03590361237580757,
          "errorDelta": 0,
          "activationFn": 0
        }
      ],
      "weightsMatrix": null
    }
  ]
}
