{
  "layers": [
    {
      "neuronsMatrix": [
        {
          "value": 1.181201590552269
        },
        {
          "value": 0.8344368064096539
        },
        {
          "value": 2.583324673402987
        },
        {
          "value": 3
        },
        {
          "value": 3
        },
        {
          "value": 3
        },
        {
          "value": 0.3316282963212518
        },
        {
          "value": 3
        }
      ],
      "weightsMatrix": [
        [
          1.1179963315792003,
          -0.7393644430161277,
          0.5030910993046659,
          0.7878016312972327,
          0.9067898490148749,
          -0.9116947419755952,
          -0.3846287466160827,
          0.5399450482576356
        ],
        [
          -0.34871383674216155,
          -0.8659828865329979,
          -0.09627861769022728,
          -0.13427546312002114,
          -0.45847010842228064,
          -0.14022297503590614,
          0.8036060972980446,
          -1.0877597306717757
        ],
        [
          0.3631859490124592,
          -0.13054612604770632,
          -0.6601128660916425,
          0.6006719228184938,
          -1.1477563060138798,
          -0.4024788016829848,
          0.9909870022900851,
          1.030879394555638
        ],
        [
          0.4065253090853373,
          0.7168280084144634,
          -0.19634332516981542,
          0.8410085680417221,
          0.26689701895927564,
          1.1900765634804222,
          0.7001530576111844,
          0.05688296106601981
        ],
        [
          0.9878157181466397,
          0.04523606606789212,
          -0.39524736542942857,
          -0.9407749635056559,
          -0.39896750168341555,
          -0.28690096986021174,
          -0.12698976366333437,
          -0.6078867490046047
        ],
        [
          -0.7719279057422455,
          -0.39272745501209505,
          -0.2322905287860038,
          0.36305073896866036,
          0.23767015718886175,
          0.4165141158140382,
          -0.7008099138376012,
          -0.7181472449784594
        ],
        [
          -0.5313167125939147,
          -0.2051219021816979,
          -0.517492583168274,
          -0.9346505332984614,
          -0.010705666558670779,
          0.4832906362693441,
          -0.7079152375553112,
          -0.39141969367589846
        ],
        [
          0.44949602166317815,
          0.24076759794267089,
          -0.40937650787789837,
          -0.31038438538800484,
          0.691989895482271,
          0.5628950724883696,
          0.5035523142323012,
          0.8686454011131473
        ]
      ]
    },
    {
      "neuronsMatrix": [
        {
          "value": 0.999815694586257,
          "bias": -0.3613687098304869,
          "errorDelta": 0,
          "activationFn": 0
        },
        {
          "value": 0.051534528061876715,
          "bias": 0.22248127631660553,
          "errorDelta": 0,
          "activationFn": 0
        },
        {
          "value": -0.9999603484875424,
          "bias": -0.3514937747152718,
          "errorDelta": 0,
          "activationFn": 0
        },
        {
          "value": 0.912812112191874,
          "bias": -0.374849896317639,
          "errorDelta": 0,
          "activationFn": 0
        },
        {
          "value": 0.14127764267844717,
          "bias": 0.029500497372883322,
          "errorDelta": 0,
          "activationFn": 0
        },
        {
          "value": 0.9984295937008276,
          "bias": 0,
          "errorDelta": 0,
          "activationFn": 0
        },
        {
          "value": 0.9987007376048165,
          "bias": 0,
          "errorDelta": 0,
          "activationFn": 0
        },
        {
          "value": 0.594268162093803,
          "bias": -0.3776518108107485,
          "errorDelta": 0,
          "activationFn": 0
        }
      ],
      "weightsMatrix": [
        [
          -0.5576560122483337,
          1.0973974015413086,
          0.28966958146719923,
          -0.4193621302679254
        ],
        [
          -0.8897323926915657,
          0.8115917364592063,
          -0.7994817163072921,
          -1.3039611078830933
        ],
        [
          -0.7497586857435454,
          0.45602169049741276,
          -0.794291910404507,
          -0.8038763387713725
        ],
        [
          -0.23020321182760553,
          -0.6004400363618652,
          -0.9135331235948971,
          0.2749385352397581
        ],
        [
          0.34976363842201286,
          -0.35107583402698633,
          -0.09380043752341483,
          0.17143717867123887
        ],
        [
          0.4030740593589465,
          -1.0678554237247413,
          -0.09725433186953003,
          -0.2318532065265319
        ],
        [
          -0.20538119684533052,
          -0.5108960421301041,
          0.2842675778155712,
          -0.1680296336672421
        ],
        [
          -0.3970749755294567,
          0.35283394222510855,
          -0.6895816601574366,
          -1.2275900146897287
        ]
      ]
    },
    {
      "neuronsMatrix": [
        {
          "value": -0.07825052117769145,
          "bias": -0.02537381101347094,
          "errorDelta": 0,
          "activationFn": 0
        },
        {
          "value": -0.9144855215588538,
          "bias": -0.27285495131060783,
          "errorDelta": 0,
          "activationFn": 0
        },
        {
          "value": -0.008130756794515004,
          "bias": 0.01932916165504442,
          "errorDelta": 0,
          "activationFn": 0
        },
        {
          "value": -0.49094626614571074,
          "bias": -0.0010363342536583234,
          "errorDelta": 0,
          "activationFn": 0
        }
      ],
      "weightsMatrix": [
        [
          0.527736542653257,
          -1.0577511287048178
        ],
        [
          -0.799170371961504,
          -0.6317696449576959
        ],
        [
          -0.2780047744550562,
          -0.5858139501494525
        ],
        [
          -0.2972877251322133,
          -0.3460363392154422
        ]
      ]
    },
    {
      "neuronsMatrix": [
        {
          "value": 0.4680763372188389,
          "bias": -0.3301426524340057,
          "errorDelta": 0,
          "activationFn": 0
        },
        {
          "value": 0.6629988479400115,
          "bias": -0.03701641106044991,
          "errorDelta": 0,
          "activationFn": 0
        }
      ],
      "weightsMatrix": null
    }
  ]
}
