{
  "layers": [
    {
      "neuronsMatrix": [
        {
          "value": 0.8387954145491894
        },
        {
          "value": -0.46696074666824666
        },
        {
          "value": 1.092110729631053
        },
        {
          "value": 1.5971814564054543
        },
        {
          "value": 2
        },
        {
          "value": 2
        },
        {
          "value": 2
        },
        {
          "value": 1.0890318894934423
        }
      ],
      "weightsMatrix": [
        [
          1.1179963315792003,
          -0.7393644430161277,
          0.6939812918672702,
          0.7878016312972327,
          0.9067898490148749,
          -0.9116947419755952,
          -0.5032022096403603,
          0.5399450482576356
        ],
        [
          -0.34871383674216155,
          -0.8659828865329979,
          -0.09627861769022728,
          -0.13427546312002114,
          -0.46107746835986874,
          0.20485090957790333,
          0.8036060972980446,
          -1.5882111240815728
        ],
        [
          0.3631859490124592,
          -0.12030157726499317,
          -0.6601128660916425,
          0.6006719228184938,
          -1.0087517860975979,
          -0.4024788016829848,
          0.9909870022900851,
          1.0882098200162154
        ],
        [
          0.4065253090853373,
          1.117779185172078,
          -0.19634332516981542,
          0.8410085680417221,
          0.26689701895927564,
          1.1900765634804222,
          0.7001530576111844,
          0.05688296106601981
        ],
        [
          0.9878157181466397,
          -0.05912759463096313,
          -0.39524736542942857,
          -0.8359934585331276,
          -0.39896750168341555,
          -0.28690096986021174,
          -0.12698976366333437,
          -0.6078867490046047
        ],
        [
          -0.7719279057422455,
          -0.36879784404872723,
          -0.2322905287860038,
          0.36305073896866036,
          0.23767015718886175,
          0.4165141158140382,
          -0.7008099138376012,
          -0.5809876384910034
        ],
        [
          -0.2446952959084222,
          -0.2051219021816979,
          -0.39069805527021606,
          -0.9346505332984614,
          -0.5394012011837406,
          0.4832906362693441,
          -0.5563279638212462,
          -0.30386369690691906
        ],
        [
          0.15301422142518373,
          -0.025608586770508007,
          -0.40937650787789837,
          -0.31038438538800484,
          0.691989895482271,
          0.5628950724883696,
          0.30273994155788586,
          0.8686454011131473
        ]
      ]
    },
    {
      "neuronsMatrix": [
        {
          "value": 0.9557375957399378,
          "bias": -0.3613687098304869,
          "errorDelta": 0,
          "activationFn": 0
        },
        {
          "value": 0.35102829462571244,
          "bias": 0.22248127631660553,
          "errorDelta": 0,
          "activationFn": 0
        },
        {
          "value": -0.9969446232441176,
          "bias": -0.3514937747152718,
          "errorDelta": 0,
          "activationFn": 0
        },
        {
          "value": -0.6669924456866813,
          "bias": -0.374849896317639,
          "errorDelta": 0,
          "activationFn": 0
        },
        {
          "value": -0.2140363401934038,
          "bias": 0.12986978723089831,
          "errorDelta": 0,
          "activationFn": 0
        },
        {
          "value": 0.9852798995030553,
          "bias": 0.012498277764132482,
          "errorDelta": 0,
          "activationFn": 0
        },
        {
          "value": -0.77604876344616,
          "bias": 0,
          "errorDelta": 0,
          "activationFn": 0
        },
        {
          "value": 0.05662763115681668,
          "bias": -0.3776518108107485,
          "errorDelta": 0,
          "activationFn": 0
        }
      ],
      "weightsMatrix": [
        [
          -0.5576560122483337,
          1.0973974015413086,
          0.18154236517985517,
          -0.4193621302679254
        ],
        [
          -0.8897323926915657,
          0.8115917364592063,
          -0.6383327247656426,
          -1.3039611078830933
        ],
        [
          -0.7497586857435454,
          0.45602169049741276,
          -0.794291910404507,
          -1.2672996394493061
        ],
        [
          -0.23020321182760553,
          -0.6004400363618652,
          -0.9135331235948971,
          0.2749385352397581
        ],
        [
          0.44565886177227,
          -0.35107583402698633,
          -0.09380043752341483,
          -0.017935806421425893
        ],
        [
          0.25903313102538705,
          -1.0678554237247413,
          -0.09725433186953003,
          -0.2318532065265319
        ],
        [
          -0.20538119684533052,
          -0.5108960421301041,
          0.2842675778155712,
          -0.258715685361512
        ],
        [
          -0.3970749755294567,
          0.35283394222510855,
          -0.5052589742273993,
          -1.2131133701596837
        ]
      ]
    },
    {
      "neuronsMatrix": [
        {
          "value": 0.3158920496248693,
          "bias": -0.02537381101347094,
          "errorDelta": 0,
          "activationFn": 0
        },
        {
          "value": 0.41876063287961934,
          "bias": -0.27285495131060783,
          "errorDelta": 0,
          "activationFn": 0
        },
        {
          "value": 0.7979681282087614,
          "bias": 0.0673379107913922,
          "errorDelta": 0,
          "activationFn": 0
        },
        {
          "value": 0.12726690091831416,
          "bias": -0.0010363342536583234,
          "errorDelta": 0,
          "activationFn": 0
        }
      ],
      "weightsMatrix": [
        [
          0.527736542653257,
          -1.0577511287048178
        ],
        [
          -0.37371221099158203,
          -0.6317696449576959
        ],
        [
          -0.13801405127760843,
          -0.5858139501494525
        ],
        [
          -0.2972877251322133,
          -0.3460363392154422
        ]
      ]
    },
    {
      "neuronsMatrix": [
        {
          "value": -0.43649819120723915,
          "bias": -0.3301426524340057,
          "errorDelta": 0,
          "activationFn": 0
        },
        {
          "value": -0.8168282572832978,
          "bias": -0.03701641106044991,
          "errorDelta": 0,
          "activationFn": 0
        }
      ],
      "weightsMatrix": null
    }
  ]
}
