{
  "layers": [
    {
      "neuronsMatrix": [
        {
          "value": 0.9390709440171899
        },
        {
          "value": 0.5793483212537313
        },
        {
          "value": 1.593379911608848
        },
        {
          "value": 1.936248556216404
        },
        {
          "value": 2
        },
        {
          "value": 2
        },
        {
          "value": 0.25733237861688196
        },
        {
          "value": 0.24152239656662122
        }
      ],
      "weightsMatrix": [
        [
          1.1179963315792003,
          -0.7393644430161277,
          0.5030910993046659,
          0.7878016312972327,
          0.9067898490148749,
          -0.9116947419755952,
          -0.3846287466160827,
          0.5399450482576356
        ],
        [
          -0.34871383674216155,
          -0.8659828865329979,
          -0.09627861769022728,
          -0.13427546312002114,
          -0.45847010842228064,
          -0.13809353581479758,
          0.8036060972980446,
          -1.5882111240815728
        ],
        [
          0.3631859490124592,
          -0.13054612604770632,
          -0.6601128660916425,
          0.6006719228184938,
          -0.958388865481941,
          -0.4024788016829848,
          0.9909870022900851,
          1.030879394555638
        ],
        [
          0.4065253090853373,
          0.7168280084144634,
          -0.19634332516981542,
          0.8410085680417221,
          0.26689701895927564,
          1.1900765634804222,
          0.7001530576111844,
          0.05688296106601981
        ],
        [
          0.9878157181466397,
          0.0042147366447058965,
          -0.39524736542942857,
          -0.9407749635056559,
          -0.39896750168341555,
          -0.28690096986021174,
          -0.12698976366333437,
          -0.6078867490046047
        ],
        [
          -0.7719279057422455,
          -0.36879784404872723,
          -0.2322905287860038,
          0.36305073896866036,
          0.23767015718886175,
          0.4165141158140382,
          -0.7008099138376012,
          -0.5809876384910034
        ],
        [
          -0.5313167125939147,
          -0.2051219021816979,
          -0.517492583168274,
          -0.9346505332984614,
          -0.010705666558670779,
          0.4832906362693441,
          -0.5563279638212462,
          -0.39141969367589846
        ],
        [
          0.44949602166317815,
          0.24076759794267089,
          -0.40937650787789837,
          -0.31038438538800484,
          0.691989895482271,
          0.5628950724883696,
          0.5035523142323012,
          0.8686454011131473
        ]
      ]
    },
    {
      "neuronsMatrix": [
        {
          "value": 0.9782820979754094,
          "bias": -0.3613687098304869,
          "errorDelta": 0,
          "activationFn": 0
        },
        {
          "value": -0.4756849954895777,
          "bias": 0.22248127631660553,
          "errorDelta": 0,
          "activationFn": 0
        },
        {
          "value": -0.9933824492618817,
          "bias": -0.3514937747152718,
          "errorDelta": 0,
          "activationFn": 0
        },
        {
          "value": 0.8857251462992664,
          "bias": -0.374849896317639,
          "errorDelta": 0,
          "activationFn": 0
        },
        {
          "value": -0.5028329187177966,
          "bias": 0.029500497372883322,
          "errorDelta": 0,
          "activationFn": 0
        },
        {
          "value": 0.8507535939956434,
          "bias": 0.012498277764132482,
          "errorDelta": 0,
          "activationFn": 0
        },
        {
          "value": 0.8768380738099736,
          "bias": 0,
          "errorDelta": 0,
          "activationFn": 0
        },
        {
          "value": -0.8634347015273688,
          "bias": -0.3776518108107485,
          "errorDelta": 0,
          "activationFn": 0
        }
      ],
      "weightsMatrix": [
        [
          -0.5576560122483337,
          1.0973974015413086,
          0.18154236517985517,
          -0.4193621302679254
        ],
        [
          -0.8897323926915657,
          0.8115917364592063,
          -0.7994817163072921,
          -1.3039611078830933
        ],
        [
          -0.7497586857435454,
          0.45602169049741276,
          -0.794291910404507,
          -0.8038763387713725
        ],
        [
          -0.23020321182760553,
          -0.6004400363618652,
          -0.9135331235948971,
          0.2749385352397581
        ],
        [
          0.44565886177227,
          -0.35107583402698633,
          -0.09380043752341483,
          0.17143717867123887
        ],
        [
          0.25903313102538705,
          -1.0678554237247413,
          -0.09725433186953003,
          -0.2318532065265319
        ],
        [
          -0.20538119684533052,
          -0.5108960421301041,
          0.2842675778155712,
          -0.258715685361512
        ],
        [
          -0.3970749755294567,
          0.35283394222510855,
          -0.5052589742273993,
          -1.2275900146897287
        ]
      ]
    },
    {
      "neuronsMatrix": [
        {
          "value": 0.5022103770463975,
          "bias": -0.02537381101347094,
          "errorDelta": 0,
          "activationFn": 0
        },
        {
          "value": -0.9676984961755268,
          "bias": -0.27285495131060783,
          "errorDelta": 0,
          "activationFn": 0
        },
        {
          "value": 0.8357977911968518,
          "bias": 0.01932916165504442,
          "errorDelta": 0,
          "activationFn": 0
        },
        {
          "value": 0.9468782906826583,
          "bias": -0.0010363342536583234,
          "errorDelta": 0,
          "activationFn": 0
        }
      ],
      "weightsMatrix": [
        [
          0.527736542653257,
          -1.0577511287048178
        ],
        [
          -0.799170371961504,
          -0.6317696449576959
        ],
        [
          -0.24061143753837594,
          -0.5858139501494525
        ],
        [
          -0.2972877251322133,
          -0.3460363392154422
        ]
      ]
    },
    {
      "neuronsMatrix": [
        {
          "value": 0.22189682005880373,
          "bias": -0.3301426524340057,
          "errorDelta": 0,
          "activationFn": 0
        },
        {
          "value": -0.6493325246284984,
          "bias": -0.03701641106044991,
          "errorDelta": 0,
          "activationFn": 0
        }
      ],
      "weightsMatrix": null
    }
  ]
}
